<?xml version="1.0"?>
<opencv_storage>
<cascade>
  <stageType>BOOST</stageType>
  <featureType>HAAR</featureType>
  <height>24</height>
  <width>24</width>
  <stageParams>
    <boostType>GAB</boostType>
    <minHitRate>9.9500000476837158e-01</minHitRate>
    <maxFalseAlarm>5.0000000000000000e-01</maxFalseAlarm>
    <weightTrimRate>9.4999999999999996e-01</weightTrimRate>
    <maxDepth>1</maxDepth>
    <maxWeakCount>100</maxWeakCount></stageParams>
  <featureParams>
    <maxCatCount>0</maxCatCount>
    <featSize>1</featSize>
    <mode>BASIC</mode></featureParams>
  <stageNum>13</stageNum>
  <stages>
    <!-- stage 0 -->
    <_>
      <maxWeakCount>3</maxWeakCount>
      <stageThreshold>-1.3655451536178589e+00</stageThreshold>
      <weakClassifiers>
        <_>
          <internalNodes>
            0 -1 92 -8.6432099342346191e-02</internalNodes>
          <leafValues>
            5.3994858264923096e-01 -9.1706877946853638e-01</leafValues></_>
        <_>
          <internalNodes>
            0 -1 20 5.2766047418117523e-02</internalNodes>
          <leafValues>
            -8.7015509605407715e-01 5.1294839382171631e-01</leafValues></_>
        <_>
          <internalNodes>
            0 -1 48 3.7114106118679047e-02</internalNodes>
          <leafValues>
            -8.8821142911911011e-01 4.2167869210243225e-01</leafValues></_></weakClassifiers></_>
    <!-- stage 1 -->
    <_>
      <maxWeakCount>5</maxWeakCount>
      <stageThreshold>-1.4206391572952271e+00</stageThreshold>
      <weakClassifiers>
        <_>
          <internalNodes>
            0 -1 107 -1.4440874569118023e-02</internalNodes>
          <leafValues>
            5.1457929611206055e-01 -7.9602968692779541e-01</leafValues></_>
        <_>
          <internalNodes>
            0 -1 27 8.9234173297882080e-02</internalNodes>
          <leafValues>
            -7.4339264631271362e-01 5.4314732551574707e-01</leafValues></_>
        <_>
          <internalNodes>
            0 -1 118 -9.9674528464674950e-03</internalNodes>
          <leafValues>
            4.9886861443519592e-01 -6.5508490800857544e-01</leafValues></_>
        <_>
          <internalNodes>
            0 -1 46 3.9435073733329773e-02</internalNodes>
          <leafValues>
            -8.3176857233047485e-01 2.8648680448532104e-01</leafValues></_>
        <_>
          <internalNodes>
            0 -1 17 -1.5690842643380165e-02</internalNodes>
          <leafValues>
            4.8738127946853638e-01 -5.1376581192016602e-01</leafValues></_></weakClassifiers></_>
    <!-- stage 2 -->
    <_>
      <maxWeakCount>6</maxWeakCount>
      <stageThreshold>-1.4347419738769531e+00</stageThreshold>
      <weakClassifiers>
        <_>
          <internalNodes>
            0 -1 62 1.4847231097519398e-02</internalNodes>
          <leafValues>
            -7.4938577413558960e-01 4.0130153298377991e-01</leafValues></_>
        <_>
          <internalNodes>
            0 -1 75 -9.5352366566658020e-02</internalNodes>
          <leafValues>
            3.5851907730102539e-01 -8.4534877538681030e-01</leafValues></_>
        <_>
          <internalNodes>
            0 -1 32 7.8068543225526810e-03</internalNodes>
          <leafValues>
            -6.4716911315917969e-01 3.7695515155792236e-01</leafValues></_>
        <_>
          <internalNodes>
            0 -1 113 1.1885741725564003e-02</internalNodes>
          <leafValues>
            -7.1315443515777588e-01 4.0029343962669373e-01</leafValues></_>
        <_>
          <internalNodes>
            0 -1 16 3.3134046941995621e-02</internalNodes>
          <leafValues>
            -8.5671377182006836e-01 2.2351410984992981e-01</leafValues></_>
        <_>
          <internalNodes>
            0 -1 110 -5.1279198378324509e-03</internalNodes>
          <leafValues>
            2.7267765998840332e-01 -6.5663301944732666e-01</leafValues></_></weakClassifiers></_>
    <!-- stage 3 -->
    <_>
      <maxWeakCount>9</maxWeakCount>
      <stageThreshold>-1.9550949335098267e+00</stageThreshold>
      <weakClassifiers>
        <_>
          <internalNodes>
            0 -1 84 -1.2553092837333679e-01</internalNodes>
          <leafValues>
            1.7512509226799011e-01 -8.0277174711227417e-01</leafValues></_>
        <_>
          <internalNodes>
            0 -1 39 4.2800018563866615e-03</internalNodes>
          <leafValues>
            -5.0218033790588379e-01 4.5961490273475647e-01</leafValues></_>
        <_>
          <internalNodes>
            0 -1 13 7.1381248533725739e-02</internalNodes>
          <leafValues>
            -6.0143744945526123e-01 3.2128983736038208e-01</leafValues></_>
        <_>
          <internalNodes>
            0 -1 5 6.0037419199943542e-02</internalNodes>
          <leafValues>
            -6.0056602954864502e-01 3.6122903227806091e-01</leafValues></_>
        <_>
          <internalNodes>
            0 -1 73 -5.2638567984104156e-02</internalNodes>
          <leafValues>
            1.5719468891620636e-01 -8.9848423004150391e-01</leafValues></_>
        <_>
          <internalNodes>
            0 -1 99 -2.1139534655958414e-03</internalNodes>
          <leafValues>
            -6.6837394237518311e-01 2.3359423875808716e-01</leafValues></_>
        <_>
          <internalNodes>
            0 -1 25 5.3915955126285553e-02</internalNodes>
          <leafValues>
            -7.2289597988128662e-01 2.1946461498737335e-01</leafValues></_>
        <_>
          <internalNodes>
            0 -1 69 8.2038827240467072e-03</internalNodes>
          <leafValues>
            -2.7824589610099792e-01 6.2211358547210693e-01</leafValues></_>
        <_>
          <internalNodes>
            0 -1 97 -4.9501387402415276e-03</internalNodes>
          <leafValues>
            1.7695514857769012e-01 -7.4194204807281494e-01</leafValues></_></weakClassifiers></_>
    <!-- stage 4 -->
    <_>
      <maxWeakCount>10</maxWeakCount>
      <stageThreshold>-1.7058583498001099e+00</stageThreshold>
      <weakClassifiers>
        <_>
          <internalNodes>
            0 -1 35 1.8362872302532196e-02</internalNodes>
          <leafValues>
            -5.6704503297805786e-01 5.2496564388275146e-01</leafValues></_>
        <_>
          <internalNodes>
            0 -1 123 -1.3360295444726944e-02</internalNodes>
          <leafValues>
            4.4103953242301941e-01 -4.2356976866722107e-01</leafValues></_>
        <_>
          <internalNodes>
            0 -1 26 -1.7217206954956055e-01</internalNodes>
          <leafValues>
            -8.2215529680252075e-01 2.1686005592346191e-01</leafValues></_>
        <_>
          <internalNodes>
            0 -1 34 3.2461958471685648e-03</internalNodes>
          <leafValues>
            -3.2287639379501343e-01 5.2456885576248169e-01</leafValues></_>
        <_>
          <internalNodes>
            0 -1 61 1.8974483013153076e-02</internalNodes>
          <leafValues>
            -8.3202964067459106e-01 1.5276718139648438e-01</leafValues></_>
        <_>
          <internalNodes>
            0 -1 19 5.4240003228187561e-02</internalNodes>
          <leafValues>
            -6.4863014221191406e-01 2.4740788340568542e-01</leafValues></_>
        <_>
          <internalNodes>
            0 -1 14 1.2491939961910248e-01</internalNodes>
          <leafValues>
            1.5097382664680481e-01 -8.3028745651245117e-01</leafValues></_>
        <_>
          <internalNodes>
            0 -1 8 -1.6389071941375732e-02</internalNodes>
          <leafValues>
            3.0319657921791077e-01 -4.0373802185058594e-01</leafValues></_>
        <_>
          <internalNodes>
            0 -1 55 -1.2344670481979847e-02</internalNodes>
          <leafValues>
            -8.2033050060272217e-01 1.5256509184837341e-01</leafValues></_>
        <_>
          <internalNodes>
            0 -1 71 -4.5980539172887802e-02</internalNodes>
          <leafValues>
            1.8929649889469147e-01 -5.4569375514984131e-01</leafValues></_></weakClassifiers></_>
    <!-- stage 5 -->
    <_>
      <maxWeakCount>7</maxWeakCount>
      <stageThreshold>-1.4953182935714722e+00</stageThreshold>
      <weakClassifiers>
        <_>
          <internalNodes>
            0 -1 65 4.2989343404769897e-02</internalNodes>
          <leafValues>
            -8.3225059509277344e-01 5.2063578367233276e-01</leafValues></_>
        <_>
          <internalNodes>
            0 -1 68 -1.0134030133485794e-02</internalNodes>
          <leafValues>
            5.9475213289260864e-01 -5.7401061058044434e-01</leafValues></_>
        <_>
          <internalNodes>
            0 -1 70 1.6762358136475086e-03</internalNodes>
          <leafValues>
            -5.4999768733978271e-01 5.2674287557601929e-01</leafValues></_>
        <_>
          <internalNodes>
            0 -1 127 -1.0180722922086716e-02</internalNodes>
          <leafValues>
            4.6049559116363525e-01 -5.3307026624679565e-01</leafValues></_>
        <_>
          <internalNodes>
            0 -1 29 4.4650979340076447e-02</internalNodes>
          <leafValues>
            -6.8265974521636963e-01 3.0006611347198486e-01</leafValues></_>
        <_>
          <internalNodes>
            0 -1 10 -1.9357752054929733e-02</internalNodes>
          <leafValues>
            4.1585710644721985e-01 -4.2449176311492920e-01</leafValues></_>
        <_>
          <internalNodes>
            0 -1 49 -2.9259141534566879e-02</internalNodes>
          <leafValues>
            1.8407292664051056e-01 -7.6118499040603638e-01</leafValues></_></weakClassifiers></_>
    <!-- stage 6 -->
    <_>
      <maxWeakCount>9</maxWeakCount>
      <stageThreshold>-1.7526569366455078e+00</stageThreshold>
      <weakClassifiers>
        <_>
          <internalNodes>
            0 -1 42 1.0182049125432968e-02</internalNodes>
          <leafValues>
            -5.9002143144607544e-01 5.7181930541992188e-01</leafValues></_>
        <_>
          <internalNodes>
            0 -1 124 8.4905382245779037e-03</internalNodes>
          <leafValues>
            -6.7828136682510376e-01 4.5938193798065186e-01</leafValues></_>
        <_>
          <internalNodes>
            0 -1 100 -1.6529872082173824e-03</internalNodes>
          <leafValues>
            3.8961547613143921e-01 -5.7943248748779297e-01</leafValues></_>
        <_>
          <internalNodes>
            0 -1 23 2.8080334886908531e-02</internalNodes>
          <leafValues>
            -6.4424061775207520e-01 3.9889210462570190e-01</leafValues></_>
        <_>
          <internalNodes>
            0 -1 41 4.7372262924909592e-02</internalNodes>
          <leafValues>
            -6.3047760725021362e-01 2.8685784339904785e-01</leafValues></_>
        <_>
          <internalNodes>
            0 -1 56 -5.8312444016337395e-03</internalNodes>
          <leafValues>
            1.9879551231861115e-01 -7.2949433326721191e-01</leafValues></_>
        <_>
          <internalNodes>
            0 -1 93 -2.4802605621516705e-03</internalNodes>
          <leafValues>
            1.5330882370471954e-01 -7.8436940908432007e-01</leafValues></_>
        <_>
          <internalNodes>
            0 -1 2 -1.0940117761492729e-02</internalNodes>
          <leafValues>
            2.5549942255020142e-01 -5.0304996967315674e-01</leafValues></_>
        <_>
          <internalNodes>
            0 -1 59 1.0553055908530951e-03</internalNodes>
          <leafValues>
            -4.9143850803375244e-01 2.3028682172298431e-01</leafValues></_></weakClassifiers></_>
    <!-- stage 7 -->
    <_>
      <maxWeakCount>10</maxWeakCount>
      <stageThreshold>-1.7434034347534180e+00</stageThreshold>
      <weakClassifiers>
        <_>
          <internalNodes>
            0 -1 67 1.0818090289831161e-02</internalNodes>
          <leafValues>
            -5.3062796592712402e-01 5.4170876741409302e-01</leafValues></_>
        <_>
          <internalNodes>
            0 -1 80 1.1088543571531773e-02</internalNodes>
          <leafValues>
            -7.9024076461791992e-01 3.0182561278343201e-01</leafValues></_>
        <_>
          <internalNodes>
            0 -1 57 4.8910006880760193e-03</internalNodes>
          <leafValues>
            -5.0887054204940796e-01 4.2479911446571350e-01</leafValues></_>
        <_>
          <internalNodes>
            0 -1 102 1.3550573959946632e-02</internalNodes>
          <leafValues>
            -5.3908187150955200e-01 3.5131847858428955e-01</leafValues></_>
        <_>
          <internalNodes>
            0 -1 117 -2.2360924631357193e-03</internalNodes>
          <leafValues>
            3.2740491628646851e-01 -5.6715065240859985e-01</leafValues></_>
        <_>
          <internalNodes>
            0 -1 31 9.4781126827001572e-03</internalNodes>
          <leafValues>
            -3.6752906441688538e-01 4.5726773142814636e-01</leafValues></_>
        <_>
          <internalNodes>
            0 -1 132 -4.9258666113018990e-03</internalNodes>
          <leafValues>
            4.1277801990509033e-01 -3.4872069954872131e-01</leafValues></_>
        <_>
          <internalNodes>
            0 -1 30 -1.8420763313770294e-02</internalNodes>
          <leafValues>
            -5.2776169776916504e-01 2.5928410887718201e-01</leafValues></_>
        <_>
          <internalNodes>
            0 -1 98 -3.8369812071323395e-02</internalNodes>
          <leafValues>
            1.6092814505100250e-01 -8.1544423103332520e-01</leafValues></_>
        <_>
          <internalNodes>
            0 -1 12 -1.4043176546692848e-02</internalNodes>
          <leafValues>
            2.0086954534053802e-01 -4.7413116693496704e-01</leafValues></_></weakClassifiers></_>
    <!-- stage 8 -->
    <_>
      <maxWeakCount>12</maxWeakCount>
      <stageThreshold>-1.7056344747543335e+00</stageThreshold>
      <weakClassifiers>
        <_>
          <internalNodes>
            0 -1 126 -1.2202402576804161e-02</internalNodes>
          <leafValues>
            4.9747955799102783e-01 -4.8947426676750183e-01</leafValues></_>
        <_>
          <internalNodes>
            0 -1 66 7.0780394598841667e-03</internalNodes>
          <leafValues>
            -5.3115200996398926e-01 3.7711587548255920e-01</leafValues></_>
        <_>
          <internalNodes>
            0 -1 45 -8.3564221858978271e-03</internalNodes>
          <leafValues>
            4.6775209903717041e-01 -4.1922029852867126e-01</leafValues></_>
        <_>
          <internalNodes>
            0 -1 86 -4.1856952011585236e-02</internalNodes>
          <leafValues>
            3.1929787993431091e-01 -5.9152877330780029e-01</leafValues></_>
        <_>
          <internalNodes>
            0 -1 78 4.4635146856307983e-02</internalNodes>
          <leafValues>
            -6.9472104310989380e-01 2.2706027328968048e-01</leafValues></_>
        <_>
          <internalNodes>
            0 -1 101 -5.0207599997520447e-04</internalNodes>
          <leafValues>
            2.5599488615989685e-01 -5.5279064178466797e-01</leafValues></_>
        <_>
          <internalNodes>
            0 -1 1 -2.3962639272212982e-02</internalNodes>
          <leafValues>
            4.7876307368278503e-01 -3.2326832413673401e-01</leafValues></_>
        <_>
          <internalNodes>
            0 -1 28 1.0341867059469223e-01</internalNodes>
          <leafValues>
            -5.6464201211929321e-01 2.2995598614215851e-01</leafValues></_>
        <_>
          <internalNodes>
            0 -1 53 -6.5198872471228242e-04</internalNodes>
          <leafValues>
            3.6609661579132080e-01 -3.2976001501083374e-01</leafValues></_>
        <_>
          <internalNodes>
            0 -1 105 3.5434016026556492e-03</internalNodes>
          <leafValues>
            1.2046841531991959e-01 -7.2427856922149658e-01</leafValues></_>
        <_>
          <internalNodes>
            0 -1 135 -8.2269217818975449e-03</internalNodes>
          <leafValues>
            2.4570776522159576e-01 -4.0374094247817993e-01</leafValues></_>
        <_>
          <internalNodes>
            0 -1 40 4.3000914156436920e-03</internalNodes>
          <leafValues>
            -2.5906088948249817e-01 3.7086230516433716e-01</leafValues></_></weakClassifiers></_>
    <!-- stage 9 -->
    <_>
      <maxWeakCount>14</maxWeakCount>
      <stageThreshold>-1.6524815559387207e+00</stageThreshold>
      <weakClassifiers>
        <_>
          <internalNodes>
            0 -1 79 7.6485481113195419e-03</internalNodes>
          <leafValues>
            -3.6491459608078003e-01 5.2235579490661621e-01</leafValues></_>
        <_>
          <internalNodes>
            0 -1 125 1.3671399094164371e-02</internalNodes>
          <leafValues>
            -5.4966157674789429e-01 3.1142774224281311e-01</leafValues></_>
        <_>
          <internalNodes>
            0 -1 38 1.2252248823642731e-02</internalNodes>
          <leafValues>
            -4.5247733592987061e-01 3.9150229096412659e-01</leafValues></_>
        <_>
          <internalNodes>
            0 -1 119 -4.8551365034654737e-04</internalNodes>
          <leafValues>
            3.1023818254470825e-01 -6.0693615674972534e-01</leafValues></_>
        <_>
          <internalNodes>
            0 -1 60 -3.7164478562772274e-03</internalNodes>
          <leafValues>
            3.5045242309570313e-01 -3.5225912928581238e-01</leafValues></_>
        <_>
          <internalNodes>
            0 -1 108 -1.8168758600950241e-02</internalNodes>
          <leafValues>
            3.7022885680198669e-01 -3.2511615753173828e-01</leafValues></_>
        <_>
          <internalNodes>
            0 -1 90 1.4017379726283252e-04</internalNodes>
          <leafValues>
            2.0221371948719025e-01 -6.1089777946472168e-01</leafValues></_>
        <_>
          <internalNodes>
            0 -1 131 -3.5170391201972961e-03</internalNodes>
          <leafValues>
            1.9338457286357880e-01 -4.9816694855690002e-01</leafValues></_>
        <_>
          <internalNodes>
            0 -1 4 -1.6468646004796028e-02</internalNodes>
          <leafValues>
            2.5830695033073425e-01 -4.6316137909889221e-01</leafValues></_>
        <_>
          <internalNodes>
            0 -1 63 9.8219793289899826e-03</internalNodes>
          <leafValues>
            -8.1627607345581055e-01 9.0391576290130615e-02</leafValues></_>
        <_>
          <internalNodes>
            0 -1 21 4.0174156427383423e-02</internalNodes>
          <leafValues>
            -7.1206843852996826e-01 1.2900061905384064e-01</leafValues></_>
        <_>
          <internalNodes>
            0 -1 37 -4.7960830852389336e-03</internalNodes>
          <leafValues>
            4.1252118349075317e-01 -2.7153655886650085e-01</leafValues></_>
        <_>
          <internalNodes>
            0 -1 33 -1.0175168514251709e-01</internalNodes>
          <leafValues>
            -6.7783159017562866e-01 1.3766016066074371e-01</leafValues></_>
        <_>
          <internalNodes>
            0 -1 114 -1.1482221074402332e-02</internalNodes>
          <leafValues>
            1.4795610308647156e-01 -7.2553396224975586e-01</leafValues></_></weakClassifiers></_>
    <!-- stage 10 -->
    <_>
      <maxWeakCount>15</maxWeakCount>
      <stageThreshold>-1.6102123260498047e+00</stageThreshold>
      <weakClassifiers>
        <_>
          <internalNodes>
            0 -1 43 5.3323609754443169e-03</internalNodes>
          <leafValues>
            -5.1734143495559692e-01 3.7659594416618347e-01</leafValues></_>
        <_>
          <internalNodes>
            0 -1 104 1.8318045884370804e-02</internalNodes>
          <leafValues>
            -4.2723998427391052e-01 3.7043333053588867e-01</leafValues></_>
        <_>
          <internalNodes>
            0 -1 122 -1.3728288467973471e-03</internalNodes>
          <leafValues>
            2.4899435043334961e-01 -5.5090916156768799e-01</leafValues></_>
        <_>
          <internalNodes>
            0 -1 54 1.7914768308401108e-02</internalNodes>
          <leafValues>
            -4.0937715768814087e-01 3.2743108272552490e-01</leafValues></_>
        <_>
          <internalNodes>
            0 -1 64 2.6991210877895355e-02</internalNodes>
          <leafValues>
            -3.7466457486152649e-01 3.2777687907218933e-01</leafValues></_>
        <_>
          <internalNodes>
            0 -1 109 -1.3765242183580995e-03</internalNodes>
          <leafValues>
            1.6480934619903564e-01 -7.5050395727157593e-01</leafValues></_>
        <_>
          <internalNodes>
            0 -1 47 -5.1634151488542557e-02</internalNodes>
          <leafValues>
            1.4178597927093506e-01 -7.2141021490097046e-01</leafValues></_>
        <_>
          <internalNodes>
            0 -1 133 -1.1400247458368540e-03</internalNodes>
          <leafValues>
            3.0454057455062866e-01 -3.6153101921081543e-01</leafValues></_>
        <_>
          <internalNodes>
            0 -1 91 -2.8312302310951054e-04</internalNodes>
          <leafValues>
            -5.2347099781036377e-01 1.8272945284843445e-01</leafValues></_>
        <_>
          <internalNodes>
            0 -1 82 1.7871326999738812e-03</internalNodes>
          <leafValues>
            -4.2339515686035156e-01 2.2618278861045837e-01</leafValues></_>
        <_>
          <internalNodes>
            0 -1 76 1.9055023789405823e-02</internalNodes>
          <leafValues>
            -8.5495400428771973e-01 8.6807861924171448e-02</leafValues></_>
        <_>
          <internalNodes>
            0 -1 6 -1.2927928008139133e-02</internalNodes>
          <leafValues>
            3.1645593047142029e-01 -2.9347223043441772e-01</leafValues></_>
        <_>
          <internalNodes>
            0 -1 136 -1.6078113112598658e-03</internalNodes>
          <leafValues>
            2.3173674941062927e-01 -4.2131733894348145e-01</leafValues></_>
        <_>
          <internalNodes>
            0 -1 94 -2.1518512221518904e-04</internalNodes>
          <leafValues>
            1.3900527358055115e-01 -6.5656799077987671e-01</leafValues></_>
        <_>
          <internalNodes>
            0 -1 120 -6.1250687576830387e-04</internalNodes>
          <leafValues>
            -6.7170417308807373e-01 1.0716146230697632e-01</leafValues></_></weakClassifiers></_>
    <!-- stage 11 -->
    <_>
      <maxWeakCount>22</maxWeakCount>
      <stageThreshold>-1.6456693410873413e+00</stageThreshold>
      <weakClassifiers>
        <_>
          <internalNodes>
            0 -1 68 -1.3012677431106567e-02</internalNodes>
          <leafValues>
            3.9835664629936218e-01 -4.3261095881462097e-01</leafValues></_>
        <_>
          <internalNodes>
            0 -1 44 -3.5436535254120827e-03</internalNodes>
          <leafValues>
            5.2550143003463745e-01 -2.9324176907539368e-01</leafValues></_>
        <_>
          <internalNodes>
            0 -1 126 -8.1982351839542389e-03</internalNodes>
          <leafValues>
            2.8969055414199829e-01 -4.5451441407203674e-01</leafValues></_>
        <_>
          <internalNodes>
            0 -1 30 -1.2135295197367668e-02</internalNodes>
          <leafValues>
            -4.6234595775604248e-01 2.4431048333644867e-01</leafValues></_>
        <_>
          <internalNodes>
            0 -1 112 -1.3088609557598829e-03</internalNodes>
          <leafValues>
            2.6000532507896423e-01 -4.7591620683670044e-01</leafValues></_>
        <_>
          <internalNodes>
            0 -1 36 4.9368417821824551e-03</internalNodes>
          <leafValues>
            -2.9819798469543457e-01 3.8265845179557800e-01</leafValues></_>
        <_>
          <internalNodes>
            0 -1 89 -7.9218834638595581e-02</internalNodes>
          <leafValues>
            1.9286973774433136e-01 -7.3416548967361450e-01</leafValues></_>
        <_>
          <internalNodes>
            0 -1 106 -2.2287981119006872e-04</internalNodes>
          <leafValues>
            -5.5550241470336914e-01 1.1397273838520050e-01</leafValues></_>
        <_>
          <internalNodes>
            0 -1 106 1.9961743964813650e-04</internalNodes>
          <leafValues>
            1.4711779356002808e-01 -5.6019359827041626e-01</leafValues></_>
        <_>
          <internalNodes>
            0 -1 15 -1.0725003667175770e-03</internalNodes>
          <leafValues>
            2.0798079669475555e-01 -4.0665653347969055e-01</leafValues></_>
        <_>
          <internalNodes>
            0 -1 72 -1.0139824450016022e-01</internalNodes>
          <leafValues>
            1.0857459902763367e-01 -5.9162855148315430e-01</leafValues></_>
        <_>
          <internalNodes>
            0 -1 129 1.5086447820067406e-03</internalNodes>
          <leafValues>
            -1.9652459025382996e-01 4.4907176494598389e-01</leafValues></_>
        <_>
          <internalNodes>
            0 -1 0 -1.6034269938245416e-03</internalNodes>
          <leafValues>
            3.4736686944961548e-01 -2.1430532634258270e-01</leafValues></_>
        <_>
          <internalNodes>
            0 -1 87 2.5688812136650085e-02</internalNodes>
          <leafValues>
            -5.0525623559951782e-01 1.6219876706600189e-01</leafValues></_>
        <_>
          <internalNodes>
            0 -1 11 -3.5010394640266895e-03</internalNodes>
          <leafValues>
            1.9599969685077667e-01 -4.1796177625656128e-01</leafValues></_>
        <_>
          <internalNodes>
            0 -1 96 -3.1513452995568514e-05</internalNodes>
          <leafValues>
            1.9629305601119995e-01 -3.7258973717689514e-01</leafValues></_>
        <_>
          <internalNodes>
            0 -1 51 -1.2909662909805775e-03</internalNodes>
          <leafValues>
            3.1190872192382813e-01 -2.2153222560882568e-01</leafValues></_>
        <_>
          <internalNodes>
            0 -1 18 6.3128396868705750e-02</internalNodes>
          <leafValues>
            -5.5859464406967163e-01 1.2995573878288269e-01</leafValues></_>
        <_>
          <internalNodes>
            0 -1 134 -4.0824823081493378e-03</internalNodes>
          <leafValues>
            2.5505650043487549e-01 -2.6643216609954834e-01</leafValues></_>
        <_>
          <internalNodes>
            0 -1 24 -2.1037571132183075e-03</internalNodes>
          <leafValues>
            -6.9683277606964111e-01 9.5795363187789917e-02</leafValues></_>
        <_>
          <internalNodes>
            0 -1 77 3.1843180768191814e-03</internalNodes>
          <leafValues>
            -6.8105149269104004e-01 8.8555037975311279e-02</leafValues></_>
        <_>
          <internalNodes>
            0 -1 9 -3.2142054988071322e-04</internalNodes>
          <leafValues>
            1.9283185899257660e-01 -3.3335024118423462e-01</leafValues></_></weakClassifiers></_>
    <!-- stage 12 -->
    <_>
      <maxWeakCount>22</maxWeakCount>
      <stageThreshold>-1.6111879348754883e+00</stageThreshold>
      <weakClassifiers>
        <_>
          <internalNodes>
            0 -1 103 -2.0702097564935684e-02</internalNodes>
          <leafValues>
            4.3864357471466064e-01 -3.6686390638351440e-01</leafValues></_>
        <_>
          <internalNodes>
            0 -1 58 9.1332686133682728e-04</internalNodes>
          <leafValues>
            -4.1860240697860718e-01 3.5845437645912170e-01</leafValues></_>
        <_>
          <internalNodes>
            0 -1 53 -1.5064540784806013e-03</internalNodes>
          <leafValues>
            3.4883737564086914e-01 -3.1088986992835999e-01</leafValues></_>
        <_>
          <internalNodes>
            0 -1 111 -4.3920881580561399e-04</internalNodes>
          <leafValues>
            2.0629335939884186e-01 -5.3231006860733032e-01</leafValues></_>
        <_>
          <internalNodes>
            0 -1 116 -2.5297648971900344e-04</internalNodes>
          <leafValues>
            -5.4170101881027222e-01 1.9419234991073608e-01</leafValues></_>
        <_>
          <internalNodes>
            0 -1 7 2.2587656974792480e-02</internalNodes>
          <leafValues>
            -5.4199862480163574e-01 1.1849583685398102e-01</leafValues></_>
        <_>
          <internalNodes>
            0 -1 22 1.1181189119815826e-01</internalNodes>
          <leafValues>
            -4.3447443842887878e-01 2.1228076517581940e-01</leafValues></_>
        <_>
          <internalNodes>
            0 -1 50 3.6521214991807938e-02</internalNodes>
          <leafValues>
            1.5647672116756439e-01 -6.4134013652801514e-01</leafValues></_>
        <_>
          <internalNodes>
            0 -1 130 -1.4726055786013603e-02</internalNodes>
          <leafValues>
            2.8996226191520691e-01 -2.8522107005119324e-01</leafValues></_>
        <_>
          <internalNodes>
            0 -1 81 7.0639746263623238e-04</internalNodes>
          <leafValues>
            1.1524931341409683e-01 -5.9213203191757202e-01</leafValues></_>
        <_>
          <internalNodes>
            0 -1 137 -3.7887911312282085e-03</internalNodes>
          <leafValues>
            1.7902173101902008e-01 -3.8632127642631531e-01</leafValues></_>
        <_>
          <internalNodes>
            0 -1 88 -5.2041290327906609e-03</internalNodes>
          <leafValues>
            -7.7624487876892090e-01 7.0920936763286591e-02</leafValues></_>
        <_>
          <internalNodes>
            0 -1 95 5.3507823031395674e-04</internalNodes>
          <leafValues>
            1.0461014509201050e-01 -5.5930536985397339e-01</leafValues></_>
        <_>
          <internalNodes>
            0 -1 83 -2.0629828795790672e-03</internalNodes>
          <leafValues>
            3.3751326799392700e-01 -2.0028069615364075e-01</leafValues></_>
        <_>
          <internalNodes>
            0 -1 52 2.8577893972396851e-03</internalNodes>
          <leafValues>
            -4.1038542985916138e-01 1.6438765823841095e-01</leafValues></_>
        <_>
          <internalNodes>
            0 -1 85 -1.3694245368242264e-02</internalNodes>
          <leafValues>
            1.1500051617622375e-01 -6.1810630559921265e-01</leafValues></_>
        <_>
          <internalNodes>
            0 -1 138 1.3634962029755116e-02</internalNodes>
          <leafValues>
            -1.5733741223812103e-01 4.7860571742057800e-01</leafValues></_>
        <_>
          <internalNodes>
            0 -1 121 1.1528281902428716e-04</internalNodes>
          <leafValues>
            1.3606601953506470e-01 -5.2969914674758911e-01</leafValues></_>
        <_>
          <internalNodes>
            0 -1 74 1.0096564888954163e-02</internalNodes>
          <leafValues>
            -1.5489582717418671e-01 4.3899446725845337e-01</leafValues></_>
        <_>
          <internalNodes>
            0 -1 3 -9.0405493974685669e-03</internalNodes>
          <leafValues>
            1.7928560078144073e-01 -3.4651347994804382e-01</leafValues></_>
        <_>
          <internalNodes>
            0 -1 115 -3.2338781747967005e-03</internalNodes>
          <leafValues>
            1.1628374457359314e-01 -4.9026346206665039e-01</leafValues></_>
        <_>
          <internalNodes>
            0 -1 128 1.9962482620030642e-03</internalNodes>
          <leafValues>
            -1.8644265830516815e-01 3.4847792983055115e-01</leafValues></_></weakClassifiers></_></stages>
  <features>
    <_>
      <rects>
        <_>
          0 0 2 7 -1.</_>
        <_>
          1 0 1 7 2.</_></rects>
      <tilted>0</tilted></_>
    <_>
      <rects>
        <_>
          0 0 4 23 -1.</_>
        <_>
          2 0 2 23 2.</_></rects>
      <tilted>0</tilted></_>
    <_>
      <rects>
        <_>
          0 0 4 12 -1.</_>
        <_>
          0 6 4 6 2.</_></rects>
      <tilted>0</tilted></_>
    <_>
      <rects>
        <_>
          0 0 5 10 -1.</_>
        <_>
          0 5 5 5 2.</_></rects>
      <tilted>0</tilted></_>
    <_>
      <rects>
        <_>
          0 0 5 12 -1.</_>
        <_>
          0 6 5 6 2.</_></rects>
      <tilted>0</tilted></_>
    <_>
      <rects>
        <_>
          0 8 24 10 -1.</_>
        <_>
          0 13 24 5 2.</_></rects>
      <tilted>0</tilted></_>
    <_>
      <rects>
        <_>
          0 12 4 12 -1.</_>
        <_>
          2 12 2 12 2.</_></rects>
      <tilted>0</tilted></_>
    <_>
      <rects>
        <_>
          0 12 16 6 -1.</_>
        <_>
          0 15 16 3 2.</_></rects>
      <tilted>0</tilted></_>
    <_>
      <rects>
        <_>
          0 16 10 6 -1.</_>
        <_>
          0 16 5 3 2.</_>
        <_>
          5 19 5 3 2.</_></rects>
      <tilted>0</tilted></_>
    <_>
      <rects>
        <_>
          0 19 6 3 -1.</_>
        <_>
          3 19 3 3 2.</_></rects>
      <tilted>0</tilted></_>
    <_>
      <rects>
        <_>
          0 19 16 4 -1.</_>
        <_>
          0 19 8 2 2.</_>
        <_>
          8 21 8 2 2.</_></rects>
      <tilted>0</tilted></_>
    <_>
      <rects>
        <_>
          0 20 16 2 -1.</_>
        <_>
          0 20 8 1 2.</_>
        <_>
          8 21 8 1 2.</_></rects>
      <tilted>0</tilted></_>
    <_>
      <rects>
        <_>
          1 0 4 12 -1.</_>
        <_>
          1 6 4 6 2.</_></rects>
      <tilted>0</tilted></_>
    <_>
      <rects>
        <_>
          1 0 14 16 -1.</_>
        <_>
          1 0 7 8 2.</_>
        <_>
          8 8 7 8 2.</_></rects>
      <tilted>0</tilted></_>
    <_>
      <rects>
        <_>
          1 0 22 18 -1.</_>
        <_>
          12 0 11 18 2.</_></rects>
      <tilted>0</tilted></_>
    <_>
      <rects>
        <_>
          1 5 4 4 -1.</_>
        <_>
          1 7 4 2 2.</_></rects>
      <tilted>0</tilted></_>
    <_>
      <rects>
        <_>
          1 9 14 6 -1.</_>
        <_>
          8 9 7 6 2.</_></rects>
      <tilted>0</tilted></_>
    <_>
      <rects>
        <_>
          1 15 8 8 -1.</_>
        <_>
          1 15 4 4 2.</_>
        <_>
          5 19 4 4 2.</_></rects>
      <tilted>0</tilted></_>
    <_>
      <rects>
        <_>
          2 0 14 20 -1.</_>
        <_>
          2 0 7 10 2.</_>
        <_>
          9 10 7 10 2.</_></rects>
      <tilted>0</tilted></_>
    <_>
      <rects>
        <_>
          2 9 12 6 -1.</_>
        <_>
          8 9 6 6 2.</_></rects>
      <tilted>0</tilted></_>
    <_>
      <rects>
        <_>
          2 10 12 6 -1.</_>
        <_>
          8 10 6 6 2.</_></rects>
      <tilted>0</tilted></_>
    <_>
      <rects>
        <_>
          2 11 14 4 -1.</_>
        <_>
          9 11 7 4 2.</_></rects>
      <tilted>0</tilted></_>
    <_>
      <rects>
        <_>
          2 11 14 8 -1.</_>
        <_>
          9 11 7 8 2.</_></rects>
      <tilted>0</tilted></_>
    <_>
      <rects>
        <_>
          2 12 14 2 -1.</_>
        <_>
          9 12 7 2 2.</_></rects>
      <tilted>0</tilted></_>
    <_>
      <rects>
        <_>
          3 0 14 18 -1.</_>
        <_>
          10 0 7 18 2.</_></rects>
      <tilted>0</tilted></_>
    <_>
      <rects>
        <_>
          3 1 12 18 -1.</_>
        <_>
          9 1 6 18 2.</_></rects>
      <tilted>0</tilted></_>
    <_>
      <rects>
        <_>
          3 8 18 4 -1.</_>
        <_>
          9 8 6 4 2.</_></rects>
      <tilted>0</tilted></_>
    <_>
      <rects>
        <_>
          3 9 10 12 -1.</_>
        <_>
          8 9 5 12 2.</_></rects>
      <tilted>0</tilted></_>
    <_>
      <rects>
        <_>
          3 9 12 12 -1.</_>
        <_>
          9 9 6 12 2.</_></rects>
      <tilted>0</tilted></_>
    <_>
      <rects>
        <_>
          3 10 12 5 -1.</_>
        <_>
          9 10 6 5 2.</_></rects>
      <tilted>0</tilted></_>
    <_>
      <rects>
        <_>
          3 12 18 1 -1.</_>
        <_>
          9 12 6 1 2.</_></rects>
      <tilted>0</tilted></_>
    <_>
      <rects>
        <_>
          3 14 4 3 -1.</_>
        <_>
          5 14 2 3 2.</_></rects>
      <tilted>0</tilted></_>
    <_>
      <rects>
        <_>
          3 16 6 2 -1.</_>
        <_>
          6 16 3 2 2.</_></rects>
      <tilted>0</tilted></_>
    <_>
      <rects>
        <_>
          4 10 15 4 -1.</_>
        <_>
          9 10 5 4 2.</_></rects>
      <tilted>0</tilted></_>
    <_>
      <rects>
        <_>
          4 12 2 4 -1.</_>
        <_>
          5 12 1 4 2.</_></rects>
      <tilted>0</tilted></_>
    <_>
      <rects>
        <_>
          4 12 4 8 -1.</_>
        <_>
          4 12 2 4 2.</_>
        <_>
          6 16 2 4 2.</_></rects>
      <tilted>0</tilted></_>
    <_>
      <rects>
        <_>
          4 13 2 4 -1.</_>
        <_>
          5 13 1 4 2.</_></rects>
      <tilted>0</tilted></_>
    <_>
      <rects>
        <_>
          4 13 2 10 -1.</_>
        <_>
          4 13 1 5 2.</_>
        <_>
          5 18 1 5 2.</_></rects>
      <tilted>0</tilted></_>
    <_>
      <rects>
        <_>
          4 16 4 3 -1.</_>
        <_>
          6 16 2 3 2.</_></rects>
      <tilted>0</tilted></_>
    <_>
      <rects>
        <_>
          5 10 2 10 -1.</_>
        <_>
          5 10 1 5 2.</_>
        <_>
          6 15 1 5 2.</_></rects>
      <tilted>0</tilted></_>
    <_>
      <rects>
        <_>
          5 11 2 4 -1.</_>
        <_>
          5 13 2 2 2.</_></rects>
      <tilted>0</tilted></_>
    <_>
      <rects>
        <_>
          5 11 16 6 -1.</_>
        <_>
          5 14 16 3 2.</_></rects>
      <tilted>0</tilted></_>
    <_>
      <rects>
        <_>
          5 12 4 8 -1.</_>
        <_>
          5 12 2 4 2.</_>
        <_>
          7 16 2 4 2.</_></rects>
      <tilted>0</tilted></_>
    <_>
      <rects>
        <_>
          5 14 4 6 -1.</_>
        <_>
          5 14 2 3 2.</_>
        <_>
          7 17 2 3 2.</_></rects>
      <tilted>0</tilted></_>
    <_>
      <rects>
        <_>
          5 19 4 2 -1.</_>
        <_>
          5 19 2 1 2.</_>
        <_>
          7 20 2 1 2.</_></rects>
      <tilted>0</tilted></_>
    <_>
      <rects>
        <_>
          5 19 6 4 -1.</_>
        <_>
          5 19 3 2 2.</_>
        <_>
          8 21 3 2 2.</_></rects>
      <tilted>0</tilted></_>
    <_>
      <rects>
        <_>
          6 7 11 12 -1.</_>
        <_>
          6 13 11 6 2.</_></rects>
      <tilted>0</tilted></_>
    <_>
      <rects>
        <_>
          6 8 16 11 -1.</_>
        <_>
          14 8 8 11 2.</_></rects>
      <tilted>0</tilted></_>
    <_>
      <rects>
        <_>
          6 8 12 10 -1.</_>
        <_>
          6 13 12 5 2.</_></rects>
      <tilted>0</tilted></_>
    <_>
      <rects>
        <_>
          6 9 16 7 -1.</_>
        <_>
          14 9 8 7 2.</_></rects>
      <tilted>0</tilted></_>
    <_>
      <rects>
        <_>
          6 10 12 9 -1.</_>
        <_>
          12 10 6 9 2.</_></rects>
      <tilted>0</tilted></_>
    <_>
      <rects>
        <_>
          6 11 2 3 -1.</_>
        <_>
          7 11 1 3 2.</_></rects>
      <tilted>0</tilted></_>
    <_>
      <rects>
        <_>
          6 11 1 6 -1.</_>
        <_>
          6 14 1 3 2.</_></rects>
      <tilted>0</tilted></_>
    <_>
      <rects>
        <_>
          6 11 2 5 -1.</_>
        <_>
          7 11 1 5 2.</_></rects>
      <tilted>0</tilted></_>
    <_>
      <rects>
        <_>
          6 11 3 6 -1.</_>
        <_>
          6 14 3 3 2.</_></rects>
      <tilted>0</tilted></_>
    <_>
      <rects>
        <_>
          6 11 10 7 -1.</_>
        <_>
          11 11 5 7 2.</_></rects>
      <tilted>0</tilted></_>
    <_>
      <rects>
        <_>
          6 16 16 2 -1.</_>
        <_>
          14 16 8 2 2.</_></rects>
      <tilted>0</tilted></_>
    <_>
      <rects>
        <_>
          6 17 6 4 -1.</_>
        <_>
          6 17 3 2 2.</_>
        <_>
          9 19 3 2 2.</_></rects>
      <tilted>0</tilted></_>
    <_>
      <rects>
        <_>
          6 18 4 2 -1.</_>
        <_>
          6 18 2 1 2.</_>
        <_>
          8 19 2 1 2.</_></rects>
      <tilted>0</tilted></_>
    <_>
      <rects>
        <_>
          6 19 8 2 -1.</_>
        <_>
          6 19 4 1 2.</_>
        <_>
          10 20 4 1 2.</_></rects>
      <tilted>0</tilted></_>
    <_>
      <rects>
        <_>
          6 21 8 2 -1.</_>
        <_>
          6 21 4 1 2.</_>
        <_>
          10 22 4 1 2.</_></rects>
      <tilted>0</tilted></_>
    <_>
      <rects>
        <_>
          7 7 9 12 -1.</_>
        <_>
          7 13 9 6 2.</_></rects>
      <tilted>0</tilted></_>
    <_>
      <rects>
        <_>
          7 9 4 6 -1.</_>
        <_>
          9 9 2 6 2.</_></rects>
      <tilted>0</tilted></_>
    <_>
      <rects>
        <_>
          7 10 8 10 -1.</_>
        <_>
          7 15 8 5 2.</_></rects>
      <tilted>0</tilted></_>
    <_>
      <rects>
        <_>
          7 11 4 11 -1.</_>
        <_>
          9 11 2 11 2.</_></rects>
      <tilted>0</tilted></_>
    <_>
      <rects>
        <_>
          7 11 11 8 -1.</_>
        <_>
          7 15 11 4 2.</_></rects>
      <tilted>0</tilted></_>
    <_>
      <rects>
        <_>
          7 12 1 6 -1.</_>
        <_>
          7 15 1 3 2.</_></rects>
      <tilted>0</tilted></_>
    <_>
      <rects>
        <_>
          7 12 4 2 -1.</_>
        <_>
          9 12 2 2 2.</_></rects>
      <tilted>0</tilted></_>
    <_>
      <rects>
        <_>
          7 12 4 6 -1.</_>
        <_>
          7 12 2 3 2.</_>
        <_>
          9 15 2 3 2.</_></rects>
      <tilted>0</tilted></_>
    <_>
      <rects>
        <_>
          7 18 6 4 -1.</_>
        <_>
          7 18 3 2 2.</_>
        <_>
          10 20 3 2 2.</_></rects>
      <tilted>0</tilted></_>
    <_>
      <rects>
        <_>
          7 19 6 2 -1.</_>
        <_>
          7 19 3 1 2.</_>
        <_>
          10 20 3 1 2.</_></rects>
      <tilted>0</tilted></_>
    <_>
      <rects>
        <_>
          8 0 14 16 -1.</_>
        <_>
          8 0 7 8 2.</_>
        <_>
          15 8 7 8 2.</_></rects>
      <tilted>0</tilted></_>
    <_>
      <rects>
        <_>
          8 1 14 19 -1.</_>
        <_>
          15 1 7 19 2.</_></rects>
      <tilted>0</tilted></_>
    <_>
      <rects>
        <_>
          8 4 14 16 -1.</_>
        <_>
          15 4 7 16 2.</_></rects>
      <tilted>0</tilted></_>
    <_>
      <rects>
        <_>
          8 6 2 10 -1.</_>
        <_>
          8 6 1 5 2.</_>
        <_>
          9 11 1 5 2.</_></rects>
      <tilted>0</tilted></_>
    <_>
      <rects>
        <_>
          8 7 14 12 -1.</_>
        <_>
          15 7 7 12 2.</_></rects>
      <tilted>0</tilted></_>
    <_>
      <rects>
        <_>
          8 10 9 10 -1.</_>
        <_>
          8 15 9 5 2.</_></rects>
      <tilted>0</tilted></_>
    <_>
      <rects>
        <_>
          8 10 9 12 -1.</_>
        <_>
          8 16 9 6 2.</_></rects>
      <tilted>0</tilted></_>
    <_>
      <rects>
        <_>
          8 10 11 8 -1.</_>
        <_>
          8 14 11 4 2.</_></rects>
      <tilted>0</tilted></_>
    <_>
      <rects>
        <_>
          8 11 2 4 -1.</_>
        <_>
          9 11 1 4 2.</_></rects>
      <tilted>0</tilted></_>
    <_>
      <rects>
        <_>
          8 11 9 10 -1.</_>
        <_>
          8 16 9 5 2.</_></rects>
      <tilted>0</tilted></_>
    <_>
      <rects>
        <_>
          8 18 4 1 -1.</_>
        <_>
          10 18 2 1 2.</_></rects>
      <tilted>0</tilted></_>
    <_>
      <rects>
        <_>
          8 18 6 4 -1.</_>
        <_>
          8 18 3 2 2.</_>
        <_>
          11 20 3 2 2.</_></rects>
      <tilted>0</tilted></_>
    <_>
      <rects>
        <_>
          8 21 4 2 -1.</_>
        <_>
          8 21 2 1 2.</_>
        <_>
          10 22 2 1 2.</_></rects>
      <tilted>0</tilted></_>
    <_>
      <rects>
        <_>
          9 8 12 13 -1.</_>
        <_>
          15 8 6 13 2.</_></rects>
      <tilted>0</tilted></_>
    <_>
      <rects>
        <_>
          9 11 12 2 -1.</_>
        <_>
          15 11 6 2 2.</_></rects>
      <tilted>0</tilted></_>
    <_>
      <rects>
        <_>
          9 11 14 3 -1.</_>
        <_>
          16 11 7 3 2.</_></rects>
      <tilted>0</tilted></_>
    <_>
      <rects>
        <_>
          9 11 15 6 -1.</_>
        <_>
          9 14 15 3 2.</_></rects>
      <tilted>0</tilted></_>
    <_>
      <rects>
        <_>
          9 14 6 2 -1.</_>
        <_>
          12 14 3 2 2.</_></rects>
      <tilted>0</tilted></_>
    <_>
      <rects>
        <_>
          9 15 9 5 -1.</_>
        <_>
          12 15 3 5 2.</_></rects>
      <tilted>0</tilted></_>
    <_>
      <rects>
        <_>
          9 18 2 1 -1.</_>
        <_>
          10 18 1 1 2.</_></rects>
      <tilted>0</tilted></_>
    <_>
      <rects>
        <_>
          9 18 1 2 -1.</_>
        <_>
          9 19 1 1 2.</_></rects>
      <tilted>0</tilted></_>
    <_>
      <rects>
        <_>
          10 9 12 10 -1.</_>
        <_>
          16 9 6 10 2.</_></rects>
      <tilted>0</tilted></_>
    <_>
      <rects>
        <_>
          10 12 5 12 -1.</_>
        <_>
          10 18 5 6 2.</_></rects>
      <tilted>0</tilted></_>
    <_>
      <rects>
        <_>
          10 13 3 10 -1.</_>
        <_>
          10 18 3 5 2.</_></rects>
      <tilted>0</tilted></_>
    <_>
      <rects>
        <_>
          10 14 2 1 -1.</_>
        <_>
          11 14 1 1 2.</_></rects>
      <tilted>0</tilted></_>
    <_>
      <rects>
        <_>
          11 13 2 6 -1.</_>
        <_>
          11 16 2 3 2.</_></rects>
      <tilted>0</tilted></_>
    <_>
      <rects>
        <_>
          11 14 4 10 -1.</_>
        <_>
          11 19 4 5 2.</_></rects>
      <tilted>0</tilted></_>
    <_>
      <rects>
        <_>
          11 15 7 3 -1.</_>
        <_>
          11 16 7 1 2.</_></rects>
      <tilted>0</tilted></_>
    <_>
      <rects>
        <_>
          11 16 6 1 -1.</_>
        <_>
          14 16 3 1 2.</_></rects>
      <tilted>0</tilted></_>
    <_>
      <rects>
        <_>
          11 17 8 4 -1.</_>
        <_>
          11 17 4 2 2.</_>
        <_>
          15 19 4 2 2.</_></rects>
      <tilted>0</tilted></_>
    <_>
      <rects>
        <_>
          11 19 6 2 -1.</_>
        <_>
          11 19 3 1 2.</_>
        <_>
          14 20 3 1 2.</_></rects>
      <tilted>0</tilted></_>
    <_>
      <rects>
        <_>
          12 11 6 8 -1.</_>
        <_>
          12 11 3 4 2.</_>
        <_>
          15 15 3 4 2.</_></rects>
      <tilted>0</tilted></_>
    <_>
      <rects>
        <_>
          12 12 6 2 -1.</_>
        <_>
          15 12 3 2 2.</_></rects>
      <tilted>0</tilted></_>
    <_>
      <rects>
        <_>
          12 12 6 6 -1.</_>
        <_>
          12 12 3 3 2.</_>
        <_>
          15 15 3 3 2.</_></rects>
      <tilted>0</tilted></_>
    <_>
      <rects>
        <_>
          12 13 2 6 -1.</_>
        <_>
          12 16 2 3 2.</_></rects>
      <tilted>0</tilted></_>
    <_>
      <rects>
        <_>
          12 14 2 1 -1.</_>
        <_>
          13 14 1 1 2.</_></rects>
      <tilted>0</tilted></_>
    <_>
      <rects>
        <_>
          13 8 4 7 -1.</_>
        <_>
          15 8 2 7 2.</_></rects>
      <tilted>0</tilted></_>
    <_>
      <rects>
        <_>
          13 11 4 4 -1.</_>
        <_>
          15 11 2 4 2.</_></rects>
      <tilted>0</tilted></_>
    <_>
      <rects>
        <_>
          13 14 2 10 -1.</_>
        <_>
          13 19 2 5 2.</_></rects>
      <tilted>0</tilted></_>
    <_>
      <rects>
        <_>
          13 16 3 8 -1.</_>
        <_>
          13 20 3 4 2.</_></rects>
      <tilted>0</tilted></_>
    <_>
      <rects>
        <_>
          13 16 6 4 -1.</_>
        <_>
          13 18 6 2 2.</_></rects>
      <tilted>0</tilted></_>
    <_>
      <rects>
        <_>
          13 20 4 2 -1.</_>
        <_>
          15 20 2 2 2.</_></rects>
      <tilted>0</tilted></_>
    <_>
      <rects>
        <_>
          14 8 3 10 -1.</_>
        <_>
          14 13 3 5 2.</_></rects>
      <tilted>0</tilted></_>
    <_>
      <rects>
        <_>
          14 15 1 6 -1.</_>
        <_>
          14 17 1 2 2.</_></rects>
      <tilted>0</tilted></_>
    <_>
      <rects>
        <_>
          14 17 3 6 -1.</_>
        <_>
          14 20 3 3 2.</_></rects>
      <tilted>0</tilted></_>
    <_>
      <rects>
        <_>
          14 18 1 2 -1.</_>
        <_>
          14 19 1 1 2.</_></rects>
      <tilted>0</tilted></_>
    <_>
      <rects>
        <_>
          14 19 4 2 -1.</_>
        <_>
          16 19 2 2 2.</_></rects>
      <tilted>0</tilted></_>
    <_>
      <rects>
        <_>
          15 15 6 3 -1.</_>
        <_>
          18 15 3 3 2.</_></rects>
      <tilted>0</tilted></_>
    <_>
      <rects>
        <_>
          15 16 2 5 -1.</_>
        <_>
          16 16 1 5 2.</_></rects>
      <tilted>0</tilted></_>
    <_>
      <rects>
        <_>
          15 17 1 2 -1.</_>
        <_>
          15 18 1 1 2.</_></rects>
      <tilted>0</tilted></_>
    <_>
      <rects>
        <_>
          15 18 2 1 -1.</_>
        <_>
          16 18 1 1 2.</_></rects>
      <tilted>0</tilted></_>
    <_>
      <rects>
        <_>
          15 19 4 1 -1.</_>
        <_>
          17 19 2 1 2.</_></rects>
      <tilted>0</tilted></_>
    <_>
      <rects>
        <_>
          16 8 4 12 -1.</_>
        <_>
          16 8 2 6 2.</_>
        <_>
          18 14 2 6 2.</_></rects>
      <tilted>0</tilted></_>
    <_>
      <rects>
        <_>
          16 11 1 8 -1.</_>
        <_>
          16 15 1 4 2.</_></rects>
      <tilted>0</tilted></_>
    <_>
      <rects>
        <_>
          16 11 3 6 -1.</_>
        <_>
          16 14 3 3 2.</_></rects>
      <tilted>0</tilted></_>
    <_>
      <rects>
        <_>
          16 12 4 8 -1.</_>
        <_>
          16 12 2 4 2.</_>
        <_>
          18 16 2 4 2.</_></rects>
      <tilted>0</tilted></_>
    <_>
      <rects>
        <_>
          16 16 6 2 -1.</_>
        <_>
          19 16 3 2 2.</_></rects>
      <tilted>0</tilted></_>
    <_>
      <rects>
        <_>
          17 10 2 4 -1.</_>
        <_>
          18 10 1 4 2.</_></rects>
      <tilted>0</tilted></_>
    <_>
      <rects>
        <_>
          17 11 2 2 -1.</_>
        <_>
          17 12 2 1 2.</_></rects>
      <tilted>0</tilted></_>
    <_>
      <rects>
        <_>
          17 14 4 5 -1.</_>
        <_>
          19 14 2 5 2.</_></rects>
      <tilted>0</tilted></_>
    <_>
      <rects>
        <_>
          17 16 4 2 -1.</_>
        <_>
          19 16 2 2 2.</_></rects>
      <tilted>0</tilted></_>
    <_>
      <rects>
        <_>
          18 13 4 3 -1.</_>
        <_>
          20 13 2 3 2.</_></rects>
      <tilted>0</tilted></_>
    <_>
      <rects>
        <_>
          18 14 4 1 -1.</_>
        <_>
          20 14 2 1 2.</_></rects>
      <tilted>0</tilted></_>
    <_>
      <rects>
        <_>
          18 15 4 2 -1.</_>
        <_>
          20 15 2 2 2.</_></rects>
      <tilted>0</tilted></_>
    <_>
      <rects>
        <_>
          19 0 5 10 -1.</_>
        <_>
          19 5 5 5 2.</_></rects>
      <tilted>0</tilted></_>
    <_>
      <rects>
        <_>
          20 3 4 6 -1.</_>
        <_>
          20 6 4 3 2.</_></rects>
      <tilted>0</tilted></_>
    <_>
      <rects>
        <_>
          21 0 3 10 -1.</_>
        <_>
          21 5 3 5 2.</_></rects>
      <tilted>0</tilted></_>
    <_>
      <rects>
        <_>
          22 0 2 24 -1.</_>
        <_>
          23 0 1 24 2.</_></rects>
      <tilted>0</tilted></_></features></cascade>
</opencv_storage>
